#ifndef GAIT_MODEL_H
#define GAIT_MODEL_H

// Auto-generated from rf_coral_F.pkl (Scenario F: CORAL domain-adapted RF).
// Training data: ours (healthy, walking-filtered) + CORAL-aligned Felius (H+S).
// Cross-subject validation: 86.9% accuracy, 90.5% stroke recall.
// Inference: feed raw features extracted on this hardware - they are already
// in the target (our-hardware) domain, so no transform needed at inference.
// DO NOT EDIT.

#pragma once
#include <cstdarg>
namespace Eloquent {
    namespace ML {
        namespace Port {
            class GaitClassifier {
                public:
                    /**
                    * Predict class for features vector
                    */
                    int predict(float *x) {
                        uint8_t votes[2] = { 0 };
                        // tree #1
                        if (x[11] <= 116.29134368896484) {
                            if (x[14] <= 0.18566534668207169) {
                                if (x[1] <= 1.6434952020645142) {
                                    if (x[7] <= 9.918602466583252) {
                                        votes[0] += 1;
                                    }

                                    else {
                                        if (x[15] <= -0.610473245382309) {
                                            if (x[5] <= 1.5368470549583435) {
                                                votes[1] += 1;
                                            }

                                            else {
                                                votes[1] += 1;
                                            }
                                        }

                                        else {
                                            votes[1] += 1;
                                        }
                                    }
                                }

                                else {
                                    if (x[6] <= 1.5829970836639404) {
                                        if (x[16] <= 0.6764731407165527) {
                                            if (x[17] <= 5.307251453399658) {
                                                votes[1] += 1;
                                            }

                                            else {
                                                votes[1] += 1;
                                            }
                                        }

                                        else {
                                            if (x[11] <= 87.84620666503906) {
                                                votes[0] += 1;
                                            }

                                            else {
                                                votes[1] += 1;
                                            }
                                        }
                                    }

                                    else {
                                        if (x[14] <= 0.07314411923289299) {
                                            if (x[6] <= 1.6563096642494202) {
                                                if (x[12] <= 0.2595600485801697) {
                                                    votes[0] += 1;
                                                }

                                                else {
                                                    if (x[16] <= 0.7035281360149384) {
                                                        if (x[5] <= 1.5873062014579773) {
                                                            votes[1] += 1;
                                                        }

                                                        else {
                                                            votes[1] += 1;
                                                        }
                                                    }

                                                    else {
                                                        votes[1] += 1;
                                                    }
                                                }
                                            }

                                            else {
                                                if (x[4] <= 0.23872027546167374) {
                                                    if (x[4] <= -0.29923461377620697) {
                                                        if (x[15] <= 3.1314857006073) {
                                                            votes[1] += 1;
                                                        }

                                                        else {
                                                            votes[1] += 1;
                                                        }
                                                    }

                                                    else {
                                                        votes[1] += 1;
                                                    }
                                                }

                                                else {
                                                    if (x[6] <= 1.9134568572044373) {
                                                        votes[1] += 1;
                                                    }

                                                    else {
                                                        if (x[11] <= 94.20648574829102) {
                                                            votes[1] += 1;
                                                        }

                                                        else {
                                                            votes[1] += 1;
                                                        }
                                                    }
                                                }
                                            }
                                        }

                                        else {
                                            if (x[4] <= 0.03560406155884266) {
                                                if (x[6] <= 1.686082661151886) {
                                                    if (x[10] <= 14.534372806549072) {
                                                        if (x[15] <= 2.0314120054244995) {
                                                            votes[0] += 1;
                                                        }

                                                        else {
                                                            votes[1] += 1;
                                                        }
                                                    }

                                                    else {
                                                        votes[1] += 1;
                                                    }
                                                }

                                                else {
                                                    if (x[12] <= 0.27439676225185394) {
                                                        if (x[7] <= 11.50791883468628) {
                                                            votes[0] += 1;
                                                        }

                                                        else {
                                                            votes[1] += 1;
                                                        }
                                                    }

                                                    else {
                                                        if (x[11] <= 114.66416931152344) {
                                                            votes[1] += 1;
                                                        }

                                                        else {
                                                            votes[1] += 1;
                                                        }
                                                    }
                                                }
                                            }

                                            else {
                                                if (x[9] <= 15.698739051818848) {
                                                    if (x[3] <= 0.27992428839206696) {
                                                        votes[1] += 1;
                                                    }

                                                    else {
                                                        votes[0] += 1;
                                                    }
                                                }

                                                else {
                                                    if (x[2] <= 12.740487575531006) {
                                                        votes[1] += 1;
                                                    }

                                                    else {
                                                        votes[1] += 1;
                                                    }
                                                }
                                            }
                                        }
                                    }
                                }
                            }

                            else {
                                if (x[9] <= 19.80370330810547) {
                                    if (x[12] <= 0.24677696079015732) {
                                        if (x[11] <= 88.26054763793945) {
                                            if (x[1] <= 2.0307315587997437) {
                                                if (x[17] <= 5.174570798873901) {
                                                    votes[1] += 1;
                                                }

                                                else {
                                                    if (x[7] <= 11.625563144683838) {
                                                        votes[1] += 1;
                                                    }

                                                    else {
                                                        if (x[10] <= 14.465448379516602) {
                                                            votes[0] += 1;
                                                        }

                                                        else {
                                                            votes[0] += 1;
                                                        }
                                                    }
                                                }
                                            }

                                            else {
                                                if (x[16] <= 0.770877331495285) {
                                                    votes[1] += 1;
                                                }

                                                else {
                                                    if (x[17] <= 5.231803894042969) {
                                                        votes[0] += 1;
                                                    }

                                                    else {
                                                        if (x[7] <= 12.45824146270752) {
                                                            votes[1] += 1;
                                                        }

                                                        else {
                                                            votes[1] += 1;
                                                        }
                                                    }
                                                }
                                            }
                                        }

                                        else {
                                            if (x[1] <= 2.2678827047348022) {
                                                if (x[10] <= 14.796165466308594) {
                                                    votes[1] += 1;
                                                }

                                                else {
                                                    if (x[14] <= 0.5272263288497925) {
                                                        if (x[14] <= 0.4074416309595108) {
                                                            votes[1] += 1;
                                                        }

                                                        else {
                                                            votes[0] += 1;
                                                        }
                                                    }

                                                    else {
                                                        if (x[13] <= 0.7082823216915131) {
                                                            votes[0] += 1;
                                                        }

                                                        else {
                                                            votes[1] += 1;
                                                        }
                                                    }
                                                }
                                            }

                                            else {
                                                votes[0] += 1;
                                            }
                                        }
                                    }

                                    else {
                                        if (x[0] <= -0.15484997630119324) {
                                            if (x[2] <= 11.113074779510498) {
                                                if (x[0] <= -0.23300013691186905) {
                                                    votes[1] += 1;
                                                }

                                                else {
                                                    votes[1] += 1;
                                                }
                                            }

                                            else {
                                                if (x[13] <= 0.5961476266384125) {
                                                    if (x[16] <= 0.8128212094306946) {
                                                        votes[1] += 1;
                                                    }

                                                    else {
                                                        votes[0] += 1;
                                                    }
                                                }

                                                else {
                                                    if (x[0] <= -0.1873398870229721) {
                                                        votes[0] += 1;
                                                    }

                                                    else {
                                                        votes[0] += 1;
                                                    }
                                                }
                                            }
                                        }

                                        else {
                                            if (x[4] <= 0.5410462319850922) {
                                                if (x[2] <= 10.572521209716797) {
                                                    if (x[4] <= -0.2748984545469284) {
                                                        if (x[1] <= 1.9350571036338806) {
                                                            votes[1] += 1;
                                                        }

                                                        else {
                                                            votes[0] += 1;
                                                        }
                                                    }

                                                    else {
                                                        if (x[14] <= 0.4209382086992264) {
                                                            votes[1] += 1;
                                                        }

                                                        else {
                                                            votes[1] += 1;
                                                        }
                                                    }
                                                }

                                                else {
                                                    if (x[16] <= 0.9049127697944641) {
                                                        if (x[7] <= 11.647615432739258) {
                                                            votes[1] += 1;
                                                        }

                                                        else {
                                                            votes[1] += 1;
                                                        }
                                                    }

                                                    else {
                                                        if (x[5] <= 2.0474666357040405) {
                                                            votes[1] += 1;
                                                        }

                                                        else {
                                                            votes[1] += 1;
                                                        }
                                                    }
                                                }
                                            }

                                            else {
                                                votes[0] += 1;
                                            }
                                        }
                                    }
                                }

                                else {
                                    if (x[8] <= 24.850422859191895) {
                                        if (x[16] <= 0.7034277617931366) {
                                            votes[0] += 1;
                                        }

                                        else {
                                            if (x[7] <= 14.510447978973389) {
                                                votes[1] += 1;
                                            }

                                            else {
                                                votes[1] += 1;
                                            }
                                        }
                                    }

                                    else {
                                        if (x[0] <= -0.035581912845373154) {
                                            if (x[9] <= 26.499401092529297) {
                                                if (x[15] <= 1.390214204788208) {
                                                    if (x[6] <= 1.705579698085785) {
                                                        votes[0] += 1;
                                                    }

                                                    else {
                                                        if (x[1] <= 2.41457462310791) {
                                                            votes[1] += 1;
                                                        }

                                                        else {
                                                            votes[0] += 1;
                                                        }
                                                    }
                                                }

                                                else {
                                                    if (x[14] <= 0.3167656511068344) {
                                                        if (x[11] <= 85.4988784790039) {
                                                            votes[0] += 1;
                                                        }

                                                        else {
                                                            votes[1] += 1;
                                                        }
                                                    }

                                                    else {
                                                        if (x[13] <= 0.6293778419494629) {
                                                            votes[0] += 1;
                                                        }

                                                        else {
                                                            votes[0] += 1;
                                                        }
                                                    }
                                                }
                                            }

                                            else {
                                                if (x[13] <= 0.5710404217243195) {
                                                    votes[0] += 1;
                                                }

                                                else {
                                                    votes[0] += 1;
                                                }
                                            }
                                        }

                                        else {
                                            if (x[1] <= 1.962432861328125) {
                                                votes[0] += 1;
                                            }

                                            else {
                                                if (x[10] <= 16.889368057250977) {
                                                    votes[1] += 1;
                                                }

                                                else {
                                                    votes[1] += 1;
                                                }
                                            }
                                        }
                                    }
                                }
                            }
                        }

                        else {
                            if (x[9] <= 18.0372257232666) {
                                if (x[17] <= 5.689382553100586) {
                                    if (x[10] <= 20.457059860229492) {
                                        if (x[5] <= 1.7726417183876038) {
                                            votes[1] += 1;
                                        }

                                        else {
                                            votes[1] += 1;
                                        }
                                    }

                                    else {
                                        if (x[5] <= 1.9831064343452454) {
                                            if (x[3] <= 0.01669021975249052) {
                                                if (x[7] <= 12.284497737884521) {
                                                    if (x[5] <= 1.884281873703003) {
                                                        votes[0] += 1;
                                                    }

                                                    else {
                                                        votes[1] += 1;
                                                    }
                                                }

                                                else {
                                                    votes[0] += 1;
                                                }
                                            }

                                            else {
                                                if (x[0] <= -0.06368280574679375) {
                                                    if (x[3] <= 0.10838152468204498) {
                                                        votes[0] += 1;
                                                    }

                                                    else {
                                                        votes[0] += 1;
                                                    }
                                                }

                                                else {
                                                    votes[1] += 1;
                                                }
                                            }
                                        }

                                        else {
                                            votes[1] += 1;
                                        }
                                    }
                                }

                                else {
                                    if (x[3] <= -0.13129548728466034) {
                                        if (x[13] <= 0.742605596780777) {
                                            if (x[17] <= 6.627216339111328) {
                                                if (x[4] <= -0.26754458248615265) {
                                                    if (x[17] <= 6.00334906578064) {
                                                        votes[1] += 1;
                                                    }

                                                    else {
                                                        votes[1] += 1;
                                                    }
                                                }

                                                else {
                                                    if (x[11] <= 123.85522842407227) {
                                                        votes[1] += 1;
                                                    }

                                                    else {
                                                        if (x[9] <= 12.878155708312988) {
                                                            votes[1] += 1;
                                                        }

                                                        else {
                                                            votes[0] += 1;
                                                        }
                                                    }
                                                }
                                            }

                                            else {
                                                if (x[5] <= 1.9047892093658447) {
                                                    votes[0] += 1;
                                                }

                                                else {
                                                    if (x[10] <= 21.66220188140869) {
                                                        votes[1] += 1;
                                                    }

                                                    else {
                                                        votes[1] += 1;
                                                    }
                                                }
                                            }
                                        }

                                        else {
                                            votes[0] += 1;
                                        }
                                    }

                                    else {
                                        if (x[17] <= 6.655283689498901) {
                                            if (x[15] <= 1.4083411693572998) {
                                                if (x[16] <= 0.9228518009185791) {
                                                    votes[1] += 1;
                                                }

                                                else {
                                                    if (x[3] <= -0.010799892363138497) {
                                                        votes[1] += 1;
                                                    }

                                                    else {
                                                        votes[1] += 1;
                                                    }
                                                }
                                            }

                                            else {
                                                if (x[12] <= 0.39062441885471344) {
                                                    if (x[3] <= 0.1364969126880169) {
                                                        votes[1] += 1;
                                                    }

                                                    else {
                                                        votes[0] += 1;
                                                    }
                                                }

                                                else {
                                                    if (x[5] <= 1.848073661327362) {
                                                        votes[1] += 1;
                                                    }

                                                    else {
                                                        if (x[17] <= 6.415549993515015) {
                                                            votes[1] += 1;
                                                        }

                                                        else {
                                                            votes[0] += 1;
                                                        }
                                                    }
                                                }
                                            }
                                        }

                                        else {
                                            if (x[10] <= 19.655323028564453) {
                                                votes[1] += 1;
                                            }

                                            else {
                                                votes[1] += 1;
                                            }
                                        }
                                    }
                                }
                            }

                            else {
                                if (x[11] <= 135.4215850830078) {
                                    if (x[13] <= 0.4905352145433426) {
                                        if (x[10] <= 21.693631172180176) {
                                            if (x[8] <= 31.86435890197754) {
                                                if (x[0] <= -0.07991840317845345) {
                                                    if (x[6] <= 2.043574571609497) {
                                                        if (x[10] <= 20.403383255004883) {
                                                            votes[1] += 1;
                                                        }

                                                        else {
                                                            votes[0] += 1;
                                                        }
                                                    }

                                                    else {
                                                        votes[1] += 1;
                                                    }
                                                }

                                                else {
                                                    if (x[0] <= -0.07180959358811378) {
                                                        votes[1] += 1;
                                                    }

                                                    else {
                                                        votes[1] += 1;
                                                    }
                                                }
                                            }

                                            else {
                                                votes[0] += 1;
                                            }
                                        }

                                        else {
                                            if (x[10] <= 22.264564514160156) {
                                                votes[1] += 1;
                                            }

                                            else {
                                                if (x[0] <= -0.08597951754927635) {
                                                    votes[0] += 1;
                                                }

                                                else {
                                                    votes[1] += 1;
                                                }
                                            }
                                        }
                                    }

                                    else {
                                        if (x[8] <= 22.79338550567627) {
                                            if (x[14] <= 0.36448535323143005) {
                                                votes[0] += 1;
                                            }

                                            else {
                                                votes[1] += 1;
                                            }
                                        }

                                        else {
                                            if (x[13] <= 0.5512695908546448) {
                                                if (x[8] <= 30.895089149475098) {
                                                    if (x[16] <= 0.9130481481552124) {
                                                        if (x[6] <= 1.8215528726577759) {
                                                            votes[1] += 1;
                                                        }

                                                        else {
                                                            votes[0] += 1;
                                                        }
                                                    }

                                                    else {
                                                        if (x[8] <= 25.65995693206787) {
                                                            votes[1] += 1;
                                                        }

                                                        else {
                                                            votes[0] += 1;
                                                        }
                                                    }
                                                }

                                                else {
                                                    if (x[11] <= 128.42823028564453) {
                                                        if (x[3] <= -0.08443297073245049) {
                                                            votes[0] += 1;
                                                        }

                                                        else {
                                                            votes[0] += 1;
                                                        }
                                                    }

                                                    else {
                                                        votes[0] += 1;
                                                    }
                                                }
                                            }

                                            else {
                                                if (x[9] <= 25.194425582885742) {
                                                    if (x[3] <= -0.010242617223411798) {
                                                        if (x[1] <= 2.1998661756515503) {
                                                            votes[0] += 1;
                                                        }

                                                        else {
                                                            votes[0] += 1;
                                                        }
                                                    }

                                                    else {
                                                        if (x[7] <= 12.322732925415039) {
                                                            votes[1] += 1;
                                                        }

                                                        else {
                                                            votes[0] += 1;
                                                        }
                                                    }
                                                }

                                                else {
                                                    votes[0] += 1;
                                                }
                                            }
                                        }
                                    }
                                }

                                else {
                                    if (x[10] <= 24.75046157836914) {
                                        if (x[12] <= 0.38284996151924133) {
                                            if (x[11] <= 143.7673568725586) {
                                                votes[1] += 1;
                                            }

                                            else {
                                                votes[1] += 1;
                                            }
                                        }

                                        else {
                                            votes[1] += 1;
                                        }
                                    }

                                    else {
                                        votes[0] += 1;
                                    }
                                }
                            }
                        }

                        // tree #2
                        if (x[9] <= 19.2559175491333) {
                            if (x[0] <= -0.07463835552334785) {
                                if (x[8] <= 22.930620193481445) {
                                    if (x[11] <= 128.27615356445312) {
                                        if (x[7] <= 9.898174285888672) {
                                            votes[0] += 1;
                                        }

                                        else {
                                            if (x[2] <= 11.330379486083984) {
                                                if (x[12] <= 0.25040189921855927) {
                                                    if (x[14] <= 0.5038729906082153) {
                                                        if (x[12] <= 0.22657915949821472) {
                                                            votes[0] += 1;
                                                        }

                                                        else {
                                                            votes[1] += 1;
                                                        }
                                                    }

                                                    else {
                                                        votes[1] += 1;
                                                    }
                                                }

                                                else {
                                                    if (x[15] <= 4.7872912883758545) {
                                                        if (x[11] <= 86.91268920898438) {
                                                            votes[1] += 1;
                                                        }

                                                        else {
                                                            votes[1] += 1;
                                                        }
                                                    }

                                                    else {
                                                        if (x[2] <= 9.855456829071045) {
                                                            votes[1] += 1;
                                                        }

                                                        else {
                                                            votes[1] += 1;
                                                        }
                                                    }
                                                }
                                            }

                                            else {
                                                if (x[11] <= 99.00343322753906) {
                                                    if (x[11] <= 88.01766967773438) {
                                                        if (x[4] <= -0.21963201463222504) {
                                                            votes[1] += 1;
                                                        }

                                                        else {
                                                            votes[1] += 1;
                                                        }
                                                    }

                                                    else {
                                                        if (x[14] <= 0.0854879766702652) {
                                                            votes[1] += 1;
                                                        }

                                                        else {
                                                            votes[0] += 1;
                                                        }
                                                    }
                                                }

                                                else {
                                                    if (x[2] <= 11.356909275054932) {
                                                        votes[0] += 1;
                                                    }

                                                    else {
                                                        if (x[15] <= 2.396501898765564) {
                                                            votes[1] += 1;
                                                        }

                                                        else {
                                                            votes[1] += 1;
                                                        }
                                                    }
                                                }
                                            }
                                        }
                                    }

                                    else {
                                        if (x[17] <= 6.039771318435669) {
                                            if (x[9] <= 14.256969928741455) {
                                                if (x[14] <= 0.25165291875600815) {
                                                    votes[0] += 1;
                                                }

                                                else {
                                                    if (x[13] <= 0.5970214307308197) {
                                                        votes[1] += 1;
                                                    }

                                                    else {
                                                        if (x[0] <= -0.12875808775424957) {
                                                            votes[1] += 1;
                                                        }

                                                        else {
                                                            votes[0] += 1;
                                                        }
                                                    }
                                                }
                                            }

                                            else {
                                                if (x[12] <= 0.3784662336111069) {
                                                    votes[0] += 1;
                                                }

                                                else {
                                                    votes[0] += 1;
                                                }
                                            }
                                        }

                                        else {
                                            if (x[12] <= 0.3426443487405777) {
                                                if (x[8] <= 20.957998275756836) {
                                                    votes[0] += 1;
                                                }

                                                else {
                                                    votes[1] += 1;
                                                }
                                            }

                                            else {
                                                if (x[8] <= 21.973066329956055) {
                                                    if (x[10] <= 21.316880226135254) {
                                                        votes[0] += 1;
                                                    }

                                                    else {
                                                        if (x[12] <= 0.3477804660797119) {
                                                            votes[1] += 1;
                                                        }

                                                        else {
                                                            votes[1] += 1;
                                                        }
                                                    }
                                                }

                                                else {
                                                    if (x[0] <= -0.10265974327921867) {
                                                        votes[0] += 1;
                                                    }

                                                    else {
                                                        votes[1] += 1;
                                                    }
                                                }
                                            }
                                        }
                                    }
                                }

                                else {
                                    if (x[13] <= 0.4889446645975113) {
                                        if (x[2] <= 11.562336444854736) {
                                            if (x[16] <= 0.6958091557025909) {
                                                votes[1] += 1;
                                            }

                                            else {
                                                votes[0] += 1;
                                            }
                                        }

                                        else {
                                            if (x[12] <= 0.328676238656044) {
                                                votes[1] += 1;
                                            }

                                            else {
                                                votes[1] += 1;
                                            }
                                        }
                                    }

                                    else {
                                        if (x[5] <= 1.807334840297699) {
                                            if (x[14] <= 0.39344294369220734) {
                                                votes[0] += 1;
                                            }

                                            else {
                                                votes[1] += 1;
                                            }
                                        }

                                        else {
                                            if (x[4] <= -0.23789042234420776) {
                                                if (x[12] <= 0.3840055614709854) {
                                                    votes[0] += 1;
                                                }

                                                else {
                                                    votes[0] += 1;
                                                }
                                            }

                                            else {
                                                if (x[9] <= 18.953760147094727) {
                                                    if (x[13] <= 0.59363853931427) {
                                                        if (x[15] <= 1.469172179698944) {
                                                            votes[1] += 1;
                                                        }

                                                        else {
                                                            votes[0] += 1;
                                                        }
                                                    }

                                                    else {
                                                        votes[0] += 1;
                                                    }
                                                }

                                                else {
                                                    if (x[13] <= 0.5664782822132111) {
                                                        votes[1] += 1;
                                                    }

                                                    else {
                                                        votes[0] += 1;
                                                    }
                                                }
                                            }
                                        }
                                    }
                                }
                            }

                            else {
                                if (x[8] <= 24.32556438446045) {
                                    if (x[1] <= 2.563173294067383) {
                                        if (x[10] <= 14.608251571655273) {
                                            if (x[4] <= -0.25200389325618744) {
                                                if (x[0] <= -0.05466863326728344) {
                                                    votes[0] += 1;
                                                }

                                                else {
                                                    if (x[5] <= 1.7203964591026306) {
                                                        votes[0] += 1;
                                                    }

                                                    else {
                                                        if (x[11] <= 87.39590072631836) {
                                                            votes[1] += 1;
                                                        }

                                                        else {
                                                            votes[1] += 1;
                                                        }
                                                    }
                                                }
                                            }

                                            else {
                                                votes[1] += 1;
                                            }
                                        }

                                        else {
                                            if (x[12] <= 0.26132333278656006) {
                                                if (x[2] <= 10.695830821990967) {
                                                    if (x[15] <= 1.0468997955322266) {
                                                        votes[1] += 1;
                                                    }

                                                    else {
                                                        votes[0] += 1;
                                                    }
                                                }

                                                else {
                                                    if (x[2] <= 11.66274881362915) {
                                                        votes[1] += 1;
                                                    }

                                                    else {
                                                        if (x[3] <= -0.08123186603188515) {
                                                            votes[0] += 1;
                                                        }

                                                        else {
                                                            votes[1] += 1;
                                                        }
                                                    }
                                                }
                                            }

                                            else {
                                                if (x[5] <= 1.5331430435180664) {
                                                    votes[1] += 1;
                                                }

                                                else {
                                                    if (x[4] <= 0.49421606957912445) {
                                                        if (x[12] <= 0.4987548887729645) {
                                                            votes[1] += 1;
                                                        }

                                                        else {
                                                            votes[1] += 1;
                                                        }
                                                    }

                                                    else {
                                                        if (x[16] <= 0.738297700881958) {
                                                            votes[0] += 1;
                                                        }

                                                        else {
                                                            votes[1] += 1;
                                                        }
                                                    }
                                                }
                                            }
                                        }
                                    }

                                    else {
                                        if (x[3] <= -0.22963960468769073) {
                                            votes[0] += 1;
                                        }

                                        else {
                                            if (x[11] <= 138.65110778808594) {
                                                if (x[8] <= 19.25404644012451) {
                                                    votes[1] += 1;
                                                }

                                                else {
                                                    votes[1] += 1;
                                                }
                                            }

                                            else {
                                                votes[1] += 1;
                                            }
                                        }
                                    }
                                }

                                else {
                                    votes[0] += 1;
                                }
                            }
                        }

                        else {
                            if (x[13] <= 0.5139091312885284) {
                                if (x[9] <= 27.312066078186035) {
                                    if (x[6] <= 1.6693645119667053) {
                                        if (x[8] <= 24.471059799194336) {
                                            if (x[5] <= 1.6702378988265991) {
                                                votes[1] += 1;
                                            }

                                            else {
                                                votes[1] += 1;
                                            }
                                        }

                                        else {
                                            if (x[16] <= 0.6937730014324188) {
                                                votes[0] += 1;
                                            }

                                            else {
                                                if (x[7] <= 12.01882266998291) {
                                                    votes[0] += 1;
                                                }

                                                else {
                                                    votes[0] += 1;
                                                }
                                            }
                                        }
                                    }

                                    else {
                                        if (x[0] <= -0.08870650082826614) {
                                            if (x[10] <= 20.427541732788086) {
                                                if (x[3] <= 0.018279905430972576) {
                                                    if (x[13] <= 0.43361999094486237) {
                                                        votes[1] += 1;
                                                    }

                                                    else {
                                                        votes[0] += 1;
                                                    }
                                                }

                                                else {
                                                    if (x[14] <= 0.24961812794208527) {
                                                        if (x[9] <= 19.80733585357666) {
                                                            votes[1] += 1;
                                                        }

                                                        else {
                                                            votes[1] += 1;
                                                        }
                                                    }

                                                    else {
                                                        votes[1] += 1;
                                                    }
                                                }
                                            }

                                            else {
                                                if (x[6] <= 2.0978055000305176) {
                                                    if (x[11] <= 131.78512573242188) {
                                                        if (x[9] <= 20.546283721923828) {
                                                            votes[1] += 1;
                                                        }

                                                        else {
                                                            votes[0] += 1;
                                                        }
                                                    }

                                                    else {
                                                        votes[1] += 1;
                                                    }
                                                }

                                                else {
                                                    votes[1] += 1;
                                                }
                                            }
                                        }

                                        else {
                                            if (x[4] <= -0.33827075362205505) {
                                                votes[1] += 1;
                                            }

                                            else {
                                                if (x[8] <= 31.432636260986328) {
                                                    votes[1] += 1;
                                                }

                                                else {
                                                    if (x[13] <= 0.48144328594207764) {
                                                        votes[1] += 1;
                                                    }

                                                    else {
                                                        votes[0] += 1;
                                                    }
                                                }
                                            }
                                        }
                                    }
                                }

                                else {
                                    if (x[11] <= 117.37052536010742) {
                                        votes[0] += 1;
                                    }

                                    else {
                                        votes[0] += 1;
                                    }
                                }
                            }

                            else {
                                if (x[1] <= 2.1275442838668823) {
                                    if (x[8] <= 24.443806648254395) {
                                        if (x[5] <= 1.7254292964935303) {
                                            votes[1] += 1;
                                        }

                                        else {
                                            if (x[0] <= -0.10122977569699287) {
                                                votes[1] += 1;
                                            }

                                            else {
                                                votes[1] += 1;
                                            }
                                        }
                                    }

                                    else {
                                        if (x[3] <= 0.033547885715961456) {
                                            if (x[17] <= 5.401233911514282) {
                                                votes[1] += 1;
                                            }

                                            else {
                                                if (x[14] <= 0.4487245976924896) {
                                                    if (x[17] <= 6.00640082359314) {
                                                        if (x[8] <= 26.146827697753906) {
                                                            votes[0] += 1;
                                                        }

                                                        else {
                                                            votes[0] += 1;
                                                        }
                                                    }

                                                    else {
                                                        votes[0] += 1;
                                                    }
                                                }

                                                else {
                                                    votes[1] += 1;
                                                }
                                            }
                                        }

                                        else {
                                            if (x[16] <= 0.7574785947799683) {
                                                votes[0] += 1;
                                            }

                                            else {
                                                if (x[11] <= 85.64815139770508) {
                                                    votes[1] += 1;
                                                }

                                                else {
                                                    if (x[6] <= 1.7876821160316467) {
                                                        votes[1] += 1;
                                                    }

                                                    else {
                                                        votes[1] += 1;
                                                    }
                                                }
                                            }
                                        }
                                    }
                                }

                                else {
                                    if (x[10] <= 23.147974014282227) {
                                        if (x[10] <= 17.963985443115234) {
                                            if (x[15] <= 1.8411211967468262) {
                                                if (x[16] <= 0.8916955888271332) {
                                                    if (x[13] <= 0.6375986635684967) {
                                                        if (x[15] <= 1.3628056049346924) {
                                                            votes[1] += 1;
                                                        }

                                                        else {
                                                            votes[0] += 1;
                                                        }
                                                    }

                                                    else {
                                                        if (x[8] <= 25.99030590057373) {
                                                            votes[0] += 1;
                                                        }

                                                        else {
                                                            votes[0] += 1;
                                                        }
                                                    }
                                                }

                                                else {
                                                    if (x[6] <= 2.032657265663147) {
                                                        votes[1] += 1;
                                                    }

                                                    else {
                                                        votes[0] += 1;
                                                    }
                                                }
                                            }

                                            else {
                                                votes[1] += 1;
                                            }
                                        }

                                        else {
                                            if (x[3] <= -0.33944079279899597) {
                                                votes[1] += 1;
                                            }

                                            else {
                                                if (x[4] <= -0.13592348247766495) {
                                                    if (x[7] <= 13.209431648254395) {
                                                        if (x[6] <= 2.064553380012512) {
                                                            votes[0] += 1;
                                                        }

                                                        else {
                                                            votes[0] += 1;
                                                        }
                                                    }

                                                    else {
                                                        if (x[3] <= -0.010970302391797304) {
                                                            votes[0] += 1;
                                                        }

                                                        else {
                                                            votes[0] += 1;
                                                        }
                                                    }
                                                }

                                                else {
                                                    if (x[1] <= 2.4300544261932373) {
                                                        if (x[7] <= 14.835119247436523) {
                                                            votes[0] += 1;
                                                        }

                                                        else {
                                                            votes[0] += 1;
                                                        }
                                                    }

                                                    else {
                                                        if (x[0] <= -0.01923438161611557) {
                                                            votes[0] += 1;
                                                        }

                                                        else {
                                                            votes[0] += 1;
                                                        }
                                                    }
                                                }
                                            }
                                        }
                                    }

                                    else {
                                        if (x[17] <= 8.471263885498047) {
                                            votes[0] += 1;
                                        }

                                        else {
                                            votes[1] += 1;
                                        }
                                    }
                                }
                            }
                        }

                        // tree #3
                        if (x[13] <= 0.5007705390453339) {
                            if (x[8] <= 32.517852783203125) {
                                if (x[10] <= 20.32976531982422) {
                                    if (x[11] <= 86.84037017822266) {
                                        if (x[15] <= 0.6230829656124115) {
                                            if (x[8] <= 25.090364456176758) {
                                                votes[1] += 1;
                                            }

                                            else {
                                                if (x[8] <= 25.527344703674316) {
                                                    votes[0] += 1;
                                                }

                                                else {
                                                    if (x[10] <= 13.984158039093018) {
                                                        votes[1] += 1;
                                                    }

                                                    else {
                                                        if (x[8] <= 26.051912307739258) {
                                                            votes[1] += 1;
                                                        }

                                                        else {
                                                            votes[1] += 1;
                                                        }
                                                    }
                                                }
                                            }
                                        }

                                        else {
                                            if (x[6] <= 1.6701000928878784) {
                                                if (x[11] <= 85.33091354370117) {
                                                    votes[0] += 1;
                                                }

                                                else {
                                                    if (x[16] <= 0.6734760999679565) {
                                                        votes[1] += 1;
                                                    }

                                                    else {
                                                        if (x[12] <= 0.24823955446481705) {
                                                            votes[0] += 1;
                                                        }

                                                        else {
                                                            votes[0] += 1;
                                                        }
                                                    }
                                                }
                                            }

                                            else {
                                                if (x[16] <= 0.6859408020973206) {
                                                    votes[0] += 1;
                                                }

                                                else {
                                                    if (x[7] <= 12.089497089385986) {
                                                        if (x[17] <= 5.5766282081604) {
                                                            votes[1] += 1;
                                                        }

                                                        else {
                                                            votes[0] += 1;
                                                        }
                                                    }

                                                    else {
                                                        if (x[14] <= 0.07346203923225403) {
                                                            votes[1] += 1;
                                                        }

                                                        else {
                                                            votes[1] += 1;
                                                        }
                                                    }
                                                }
                                            }
                                        }
                                    }

                                    else {
                                        if (x[5] <= 1.5289302468299866) {
                                            if (x[13] <= 0.37142908573150635) {
                                                if (x[10] <= 15.390277862548828) {
                                                    votes[1] += 1;
                                                }

                                                else {
                                                    votes[0] += 1;
                                                }
                                            }

                                            else {
                                                votes[1] += 1;
                                            }
                                        }

                                        else {
                                            if (x[14] <= 0.0949532724916935) {
                                                if (x[8] <= 23.92991065979004) {
                                                    if (x[17] <= 4.408454895019531) {
                                                        votes[1] += 1;
                                                    }

                                                    else {
                                                        if (x[4] <= 0.24774222820997238) {
                                                            votes[1] += 1;
                                                        }

                                                        else {
                                                            votes[1] += 1;
                                                        }
                                                    }
                                                }

                                                else {
                                                    if (x[7] <= 11.494548797607422) {
                                                        votes[1] += 1;
                                                    }

                                                    else {
                                                        if (x[13] <= 0.258100688457489) {
                                                            votes[1] += 1;
                                                        }

                                                        else {
                                                            votes[1] += 1;
                                                        }
                                                    }
                                                }
                                            }

                                            else {
                                                if (x[4] <= 0.24440915882587433) {
                                                    if (x[12] <= 0.2898474484682083) {
                                                        if (x[7] <= 11.464136123657227) {
                                                            votes[1] += 1;
                                                        }

                                                        else {
                                                            votes[1] += 1;
                                                        }
                                                    }

                                                    else {
                                                        if (x[0] <= -0.16006051003932953) {
                                                            votes[1] += 1;
                                                        }

                                                        else {
                                                            votes[1] += 1;
                                                        }
                                                    }
                                                }

                                                else {
                                                    if (x[9] <= 14.901687145233154) {
                                                        votes[0] += 1;
                                                    }

                                                    else {
                                                        if (x[17] <= 8.426624298095703) {
                                                            votes[1] += 1;
                                                        }

                                                        else {
                                                            votes[1] += 1;
                                                        }
                                                    }
                                                }
                                            }
                                        }
                                    }
                                }

                                else {
                                    if (x[16] <= 0.8826563656330109) {
                                        if (x[1] <= 2.0397859811782837) {
                                            if (x[10] <= 21.115275382995605) {
                                                if (x[6] <= 1.8492225408554077) {
                                                    if (x[11] <= 124.25605392456055) {
                                                        votes[1] += 1;
                                                    }

                                                    else {
                                                        votes[1] += 1;
                                                    }
                                                }

                                                else {
                                                    votes[0] += 1;
                                                }
                                            }

                                            else {
                                                if (x[15] <= 1.8028011918067932) {
                                                    if (x[8] <= 21.636911392211914) {
                                                        votes[1] += 1;
                                                    }

                                                    else {
                                                        votes[1] += 1;
                                                    }
                                                }

                                                else {
                                                    votes[1] += 1;
                                                }
                                            }
                                        }

                                        else {
                                            if (x[11] <= 127.83190155029297) {
                                                if (x[17] <= 5.601901292800903) {
                                                    votes[0] += 1;
                                                }

                                                else {
                                                    if (x[16] <= 0.8627291321754456) {
                                                        if (x[2] <= 12.034270763397217) {
                                                            votes[1] += 1;
                                                        }

                                                        else {
                                                            votes[1] += 1;
                                                        }
                                                    }

                                                    else {
                                                        votes[0] += 1;
                                                    }
                                                }
                                            }

                                            else {
                                                if (x[15] <= 1.3447220921516418) {
                                                    votes[1] += 1;
                                                }

                                                else {
                                                    if (x[3] <= 0.09173974767327309) {
                                                        votes[0] += 1;
                                                    }

                                                    else {
                                                        votes[0] += 1;
                                                    }
                                                }
                                            }
                                        }
                                    }

                                    else {
                                        if (x[9] <= 19.99009609222412) {
                                            votes[1] += 1;
                                        }

                                        else {
                                            if (x[8] <= 26.213167190551758) {
                                                if (x[3] <= 0.09550053253769875) {
                                                    votes[1] += 1;
                                                }

                                                else {
                                                    votes[0] += 1;
                                                }
                                            }

                                            else {
                                                if (x[0] <= -0.08870871365070343) {
                                                    if (x[8] <= 28.386435508728027) {
                                                        if (x[17] <= 6.8482372760772705) {
                                                            votes[1] += 1;
                                                        }

                                                        else {
                                                            votes[0] += 1;
                                                        }
                                                    }

                                                    else {
                                                        votes[1] += 1;
                                                    }
                                                }

                                                else {
                                                    votes[1] += 1;
                                                }
                                            }
                                        }
                                    }
                                }
                            }

                            else {
                                if (x[15] <= 1.5953667163848877) {
                                    votes[0] += 1;
                                }

                                else {
                                    if (x[17] <= 7.036274671554565) {
                                        votes[0] += 1;
                                    }

                                    else {
                                        votes[0] += 1;
                                    }
                                }
                            }
                        }

                        else {
                            if (x[6] <= 1.8857542276382446) {
                                if (x[2] <= 11.32685375213623) {
                                    if (x[8] <= 24.73008918762207) {
                                        if (x[7] <= 11.342348575592041) {
                                            if (x[9] <= 17.777698516845703) {
                                                if (x[13] <= 0.5080377161502838) {
                                                    votes[1] += 1;
                                                }

                                                else {
                                                    votes[1] += 1;
                                                }
                                            }

                                            else {
                                                votes[1] += 1;
                                            }
                                        }

                                        else {
                                            if (x[5] <= 1.8120635747909546) {
                                                if (x[7] <= 11.841023921966553) {
                                                    if (x[14] <= 0.5237457454204559) {
                                                        if (x[14] <= 0.31189996004104614) {
                                                            votes[1] += 1;
                                                        }

                                                        else {
                                                            votes[0] += 1;
                                                        }
                                                    }

                                                    else {
                                                        votes[1] += 1;
                                                    }
                                                }

                                                else {
                                                    if (x[12] <= 0.2380324900150299) {
                                                        if (x[6] <= 1.7445517778396606) {
                                                            votes[0] += 1;
                                                        }

                                                        else {
                                                            votes[1] += 1;
                                                        }
                                                    }

                                                    else {
                                                        if (x[6] <= 1.6672163605690002) {
                                                            votes[1] += 1;
                                                        }

                                                        else {
                                                            votes[1] += 1;
                                                        }
                                                    }
                                                }
                                            }

                                            else {
                                                votes[1] += 1;
                                            }
                                        }
                                    }

                                    else {
                                        if (x[1] <= 1.9689414501190186) {
                                            votes[0] += 1;
                                        }

                                        else {
                                            if (x[15] <= 1.4031095504760742) {
                                                if (x[16] <= 0.7676120698451996) {
                                                    votes[0] += 1;
                                                }

                                                else {
                                                    votes[1] += 1;
                                                }
                                            }

                                            else {
                                                if (x[0] <= -0.10087011381983757) {
                                                    votes[1] += 1;
                                                }

                                                else {
                                                    votes[1] += 1;
                                                }
                                            }
                                        }
                                    }
                                }

                                else {
                                    if (x[11] <= 85.76605606079102) {
                                        if (x[4] <= -0.20120995491743088) {
                                            if (x[5] <= 1.8237316608428955) {
                                                votes[0] += 1;
                                            }

                                            else {
                                                votes[0] += 1;
                                            }
                                        }

                                        else {
                                            votes[0] += 1;
                                        }
                                    }

                                    else {
                                        if (x[5] <= 1.820382535457611) {
                                            if (x[14] <= 0.5871480107307434) {
                                                if (x[6] <= 1.765456736087799) {
                                                    if (x[6] <= 1.733644187450409) {
                                                        if (x[3] <= -0.038997091352939606) {
                                                            votes[0] += 1;
                                                        }

                                                        else {
                                                            votes[1] += 1;
                                                        }
                                                    }

                                                    else {
                                                        if (x[5] <= 1.7733219265937805) {
                                                            votes[0] += 1;
                                                        }

                                                        else {
                                                            votes[1] += 1;
                                                        }
                                                    }
                                                }

                                                else {
                                                    if (x[6] <= 1.800614058971405) {
                                                        if (x[8] <= 25.012633323669434) {
                                                            votes[0] += 1;
                                                        }

                                                        else {
                                                            votes[0] += 1;
                                                        }
                                                    }

                                                    else {
                                                        if (x[6] <= 1.8288193345069885) {
                                                            votes[1] += 1;
                                                        }

                                                        else {
                                                            votes[0] += 1;
                                                        }
                                                    }
                                                }
                                            }

                                            else {
                                                votes[1] += 1;
                                            }
                                        }

                                        else {
                                            if (x[8] <= 25.08650302886963) {
                                                if (x[14] <= 0.5742403864860535) {
                                                    if (x[14] <= 0.4230984002351761) {
                                                        if (x[2] <= 12.599008083343506) {
                                                            votes[1] += 1;
                                                        }

                                                        else {
                                                            votes[0] += 1;
                                                        }
                                                    }

                                                    else {
                                                        if (x[7] <= 12.744832515716553) {
                                                            votes[1] += 1;
                                                        }

                                                        else {
                                                            votes[1] += 1;
                                                        }
                                                    }
                                                }

                                                else {
                                                    if (x[0] <= -0.08782871440052986) {
                                                        if (x[3] <= -0.15476571768522263) {
                                                            votes[0] += 1;
                                                        }

                                                        else {
                                                            votes[1] += 1;
                                                        }
                                                    }

                                                    else {
